{
    "hidden_layers_neurons": [
        [
            [
                [
                    -0.6076872511791886,
                    -0.9323664402571439,
                    0.4498418575304104,
                    0.8479587875002403,
                    0.7388554841767114,
                    0.8578500707953745,
                    0.7229604572592006,
                    -0.506197679084219,
                    0.3194402349001118,
                    0.6509879049068,
                    0.3858342149142683,
                    -0.6570257561206037,
                    0.5842966024649757,
                    0.451917940016286,
                    -0.16422644149352397,
                    -0.31852787918195846,
                    0.5818812246855689,
                    0.48604260790525766,
                    -0.1659872900782286,
                    -0.10265631407686343,
                    0.21888941077525784,
                    0.8417807896304336,
                    -0.3017571029219656,
                    -0.8949852293903695,
                    -0.9991981956176563,
                    -0.503287095143556,
                    0.6418339553143773,
                    0.36762478371194396,
                    0.18638224811476767,
                    0.4217325815955304,
                    0.25965136689196067,
                    0.15607419894901642,
                    0.4733107015253156,
                    -0.9154412823541717,
                    0.7072290969109425,
                    -0.5079172581424599,
                    0.7509294172915492,
                    -0.9139191646217669,
                    0.532780820985109,
                    -0.9781370408928785,
                    -0.5793745762568371,
                    -0.6605357368023557,
                    -0.918973801028407,
                    -0.14109163786812634,
                    0.7450750584615462,
                    -0.8778573799577626,
                    -0.28746220924001864,
                    0.3266900579563339,
                    -0.14122813729624986,
                    -0.11947780985686615,
                    -0.32079994587766025,
                    0.15275296906686328,
                    -0.2702808651848394,
                    -0.45781369486661205,
                    0.1805776584345502,
                    0.7515524511751381,
                    0.1383434701905073,
                    0.13956257514796536,
                    0.03847957634026383,
                    -0.6261248899854766,
                    -0.26336952157486987,
                    -0.4798746405725499,
                    0.5601176477936087,
                    0.7666296468741702,
                    0.37706075225520497,
                    0.0957986442175705,
                    -0.4767711831030415,
                    0.09555918127634905,
                    -0.6268477050451755,
                    -0.529145660664085,
                    -0.9160360228995146,
                    -0.6545902451657356,
                    0.4041504781538442,
                    -0.4080816818732565,
                    0.5849077883978904,
                    0.09478205604963771,
                    -1.1484192260714052,
                    0.39284035547565677,
                    0.8966405654118981,
                    0.30685684614605735,
                    -0.8438386839877788,
                    0.33347099267220126,
                    0.7817458192519058,
                    -0.11458716074831621,
                    0.7934031601630878,
                    0.5040163569470117,
                    0.7145213433774041,
                    -0.7380054270437095,
                    -0.9337204390555315,
                    -0.02118626667487539,
                    -0.8873263237075965,
                    -0.5551480461646,
                    -0.7038302888372393,
                    -1.1495734222153116,
                    -0.43273461126439056,
                    -0.5002130810457819,
                    -1.640945147421665,
                    -1.9291411046635851,
                    0.2970196870493539,
                    -0.3872261383832758,
                    -0.6601225540566743,
                    -0.09676878041204481,
                    0.8331649569567426,
                    0.9405889769577414,
                    -0.8249780483339333,
                    0.4996751271128444,
                    0.04293076172379018,
                    -0.33072470399138637,
                    -0.755279745298209,
                    -0.5728169239890365,
                    -0.11431457816327839,
                    -0.18466021875433136,
                    -0.3041299420116945,
                    0.7178397759555714,
                    0.0903256305745193,
                    0.08518154227470577,
                    -0.8216375183037544,
                    -1.1100059771251383,
                    -0.751312208023199,
                    -0.175118231684143,
                    -2.5255268968148172,
                    -1.6039293647173214,
                    -1.0266213493638585,
                    -0.7325767728345347,
                    -0.05742020500699981,
                    -1.1760144578057956,
                    1.1014704194521725,
                    1.3077399578453848,
                    -0.49369015984303255,
                    0.5856945750808661,
                    0.37949723749417696,
                    -0.3746561108957202,
                    0.9054827318782688,
                    0.16968472289178077,
                    0.3475600559577738,
                    -0.02180528048295974,
                    0.6091202560526288,
                    0.9746415932785042,
                    0.14369888292637412,
                    0.1893177808366675,
                    -0.18134453408366347,
                    0.7844081384732187,
                    -0.8572745410866481,
                    0.13887647210647153,
                    -0.35387463620065396,
                    -0.09505048240809034,
                    -1.221789104403818,
                    -1.5656961709011294,
                    -0.7000795269882769,
                    -1.027597667404322,
                    -1.5500182728396554,
                    -1.602571919222024,
                    -0.4492422405095323,
                    0.18195414275619132,
                    0.1386645435053623,
                    -0.12878504474892943,
                    -0.6144829073756674,
                    0.5678564773501131,
                    0.48746351943484845,
                    0.06340277531278525,
                    0.7166142952226002,
                    0.18933124101709428,
                    0.7961945635002404,
                    -0.44638748462345496,
                    -0.89793402941426,
                    0.40015672641373035,
                    0.9898071812087677,
                    -0.31510749488861967,
                    -0.2935893807877592,
                    0.05048407214836096,
                    0.7315763011152405,
                    0.08482352743104471,
                    -1.6272177298591688,
                    -1.6715636841822645,
                    -1.748028209524139,
                    0.13630402672628497,
                    -0.8874065994859299,
                    0.6885796207665433,
                    0.8554156347854862,
                    -0.7380786472928508,
                    -0.5696012347767814,
                    -0.5480637645828238,
                    -0.9714285795099623,
                    0.2965171979331928,
                    -0.09902086997898638,
                    0.604170179009229,
                    0.10837066557671281,
                    -0.3964085618885204,
                    -1.0911936010527432,
                    0.9323132051102097,
                    0.20666106968212733,
                    0.1790369295532709,
                    -0.06067261339441569,
                    0.17696761002095757,
                    -0.7194187175655335,
                    0.3483869773899906,
                    -0.09093823221651798,
                    0.3526074279071399,
                    -0.8352043699205454,
                    -0.2071093766932874,
                    -0.3567108007365707,
                    -0.8633164885157302,
                    -1.4549051431959463,
                    -0.015932756554971554,
                    -0.4950374768444695,
                    -0.15121342798159257,
                    -0.5501742375240197,
                    -0.2138591473386077,
                    -0.6908278031081272,
                    0.3405425206296818,
                    -0.30902798208606297,
                    -0.8608582723653053,
                    -0.2931586812299907,
                    0.34846534813276436,
                    0.9069076428533075,
                    1.0247430695839204,
                    0.21642333683994164,
                    0.3775519209195425,
                    -0.21999753210535689,
                    -0.32748349076859334,
                    -0.9902283368455246,
                    0.438589026538206,
                    -0.888814639267641,
                    -0.6544082270289249,
                    0.22131307830745509,
                    -0.4676772849410195,
                    0.7981807065778146,
                    -0.6740837364722111,
                    -1.5376084087970696,
                    -1.3396214865052667,
                    0.215733199442069,
                    -0.4918215136843981,
                    -0.3792624159524728,
                    0.5217467087069012,
                    0.1872332861405732,
                    -0.4386589301076142,
                    0.43066858393957236,
                    -0.9400793332407977,
                    -0.07060873534918277,
                    -0.7438087214393306,
                    0.09123577601288449,
                    0.18574304817139625,
                    0.3274523695094043,
                    1.207585060934669,
                    0.34684633434770007,
                    -0.01998753936427602,
                    0.01263659805312592,
                    -0.4749788353323406,
                    -0.38641623259553537,
                    0.3654886797793265,
                    0.2923441555824377,
                    0.17421503150231676,
                    0.8360001255115662,
                    -0.5058827446926774,
                    0.28302671896393206,
                    -0.6765759794998986,
                    -0.32325435909523004,
                    -0.37382649532119433,
                    0.5084430181121852,
                    0.10682451777688935,
                    0.5329408295615741,
                    -0.29883680682464725,
                    -0.7317790278778946,
                    -0.430904054439206,
                    1.3891254678766798,
                    -0.11568436103792713,
                    -0.7495567681539268,
                    -1.8573884642852905,
                    -0.6020063161898802,
                    -1.13632636867544,
                    -0.3983393459512604,
                    0.5624609736280537,
                    -1.0753319696912655,
                    1.9323408352501668,
                    0.2388471423480688,
                    1.5111548710977125,
                    0.5286780786577425,
                    0.41980127435737064,
                    0.16802611129929354,
                    -0.22715727518376028,
                    -0.2428024074290422,
                    -0.34752115160336616,
                    -0.8588922150003908,
                    -0.6823492779039877,
                    -0.4600487170482518,
                    0.1263175828651126,
                    -0.44809398509608195,
                    0.4274290429773306,
                    -0.5971349830263758,
                    -0.2753619735217368,
                    -0.6641138391454153,
                    -1.2453024415301392,
                    -1.2528493030128585,
                    0.0740619225774762,
                    -1.734954869079644,
                    -1.552702559278544,
                    -1.2266634740690252,
                    -1.7289194635550227,
                    -1.0844874667127784,
                    -0.9936800074405228,
                    -1.0309447205170683,
                    0.2208837973905742,
                    1.3266868357622021,
                    0.8046239847564362,
                    0.6987134937490826,
                    -0.8374562946928245,
                    0.08234346773276979,
                    0.4631265721780067,
                    0.9202637692538058,
                    -0.6398271042012947,
                    -0.7944693725208295,
                    0.3859083221625782,
                    0.019048643108303884,
                    0.9129504622717395,
                    0.2504959429005559,
                    0.3985851158356137,
                    -0.6965469072336445,
                    -0.3242208534423385,
                    -0.7132490947135639,
                    -0.12067577849118725,
                    -0.1921597936462298,
                    0.6791915670092309,
                    -1.0735733286375106,
                    -2.6922916130539916,
                    -1.4562339698623683,
                    -3.328286995997396,
                    -2.8246349711413585,
                    -2.343702708769281,
                    -1.0730757333790815,
                    -1.229504769294905,
                    -0.9729159894186179,
                    0.264813136742848,
                    -0.5530781260074983,
                    0.3889646034622059,
                    0.29384099792430746,
                    0.2970168382535958,
                    0.8520086869695424,
                    -0.9211373666173233,
                    -0.7668647142081358,
                    0.03940361862793176,
                    -0.2786749605387072,
                    -0.9918745424506026,
                    0.42441389447560496,
                    -0.35709457745037526,
                    1.2731506606665242,
                    -1.2382868285730477,
                    -0.9410336209220853,
                    -0.4601869241700945,
                    1.1972600320845184,
                    0.45374167574199,
                    0.6048088254234549,
                    0.22200708634606592,
                    -2.15659384190774,
                    -2.769744675348484,
                    -2.611762669804684,
                    -1.9878139341309016,
                    -0.669108697022375,
                    -0.7904293696766923,
                    0.17464538052079173,
                    0.27298196898118005,
                    -0.6434404775940078,
                    0.43712165252735535,
                    -0.08919833524518817,
                    0.872164695327649,
                    0.41895751903350975,
                    -0.6379238233238559,
                    0.8547523857432614,
                    0.30189922753336507,
                    -0.6993591451824748,
                    -1.044487629687219,
                    -0.52071813064486,
                    -0.058412041630422795,
                    -0.7039551478654292,
                    0.5205573977498685,
                    0.06958761885839163,
                    -0.14992820099412676,
                    0.7844230214598532,
                    0.34178816339850043,
                    1.1717147774965113,
                    0.6723081833141998,
                    -1.5264082174771088,
                    -0.2234668411959874,
                    -2.187891007857797,
                    -1.0486507586872673,
                    -1.9313528655905245,
                    -0.9878192243464793,
                    -0.5446889753977451,
                    -0.536759591864411,
                    0.19223475775273982,
                    0.11131177357086554,
                    -0.9589453793629819,
                    -0.5173279529246485,
                    0.6066414639101007,
                    -0.7945547839050933,
                    -0.4716658128924873,
                    0.27730419152872327,
                    0.2811923508536468,
                    -1.3356774210126856,
                    -0.4266376010890677,
                    -1.0679924226868347,
                    0.7464741330723954,
                    0.10513273649337455,
                    0.16741985160707729,
                    1.1353932478286481,
                    1.6176525586108375,
                    1.2121851337095104,
                    0.569590862503472,
                    0.8181153819910288,
                    -0.7053847373577873,
                    -1.2992599266716576,
                    -0.7941948345261247,
                    0.13334810327451904,
                    -0.9212773915390139,
                    -0.8940430067005892,
                    -0.6369623310602724,
                    -0.3602959608408941,
                    0.7793877761198936,
                    0.4805489607820158,
                    0.6149824283564256,
                    -0.5314960093281318,
                    -0.385920830157256,
                    0.9369524351271735,
                    -0.5214269117524857,
                    -0.8947835705339959,
                    -0.9223043363357456,
                    -0.21599858054318086,
                    0.12219761536163684,
                    0.7712904995192226,
                    0.02712667941932294,
                    0.7444799979969582,
                    1.4033803788797925,
                    1.2974425682425432,
                    2.195061828193272,
                    2.538837068219444,
                    2.209424748942021,
                    1.7872511427995934,
                    -0.5553389115794505,
                    -0.273445331870327,
                    -0.2476646423499451,
                    -0.5208985609415238,
                    -0.9737108473865373,
                    -0.0032286563967610107,
                    -0.437796767075643,
                    -0.9068617762085655,
                    -0.6729254419093992,
                    -0.5240103271769454,
                    0.7773290935474763,
                    0.35217629085219754,
                    -0.23755024059048224,
                    0.9416204731989558,
                    -0.6126708019643723,
                    -0.2380094318923667,
                    0.7435981451885153,
                    -1.2352294223229696,
                    -0.09642837587239698,
                    -0.3631138907443946,
                    1.5458658798258564,
                    2.1782890454301227,
                    2.0530957658710682,
                    2.202980336239749,
                    2.775620930883129,
                    2.9839788958324918,
                    1.7350878273646664,
                    1.4335444185721378,
                    -0.10105572386043926,
                    -0.14120101221409415,
                    -1.1792793970104418,
                    -0.1351653060104096,
                    -0.30671684144845657,
                    0.5829256116431654,
                    -0.8364605652035745,
                    0.5082333811134139,
                    0.755811756205795,
                    -0.5421024608554804,
                    -0.46322614442085575,
                    -0.8382195716403003,
                    0.7878436262094604,
                    -0.7791161394743401,
                    1.1303644020035504,
                    0.20018971804792085,
                    -0.18707189817249895,
                    0.3097411620131614,
                    -0.30381568623743205,
                    0.8743739246426658,
                    -0.6772468705281541,
                    -0.6606956792550025,
                    0.1001580501633614,
                    0.3201341433508889,
                    0.591901325433436,
                    1.0022485321739332,
                    0.9684329341391128,
                    1.0677381120095575,
                    -0.8351099340378524,
                    -1.3583804280289997,
                    -1.7347064253800053,
                    -1.1179083600772834,
                    -1.4211717375153292,
                    0.16619847476891664,
                    0.5324579181633907,
                    -0.9868057204848035,
                    0.7218564711643218,
                    0.6089358171748667,
                    0.2760305079098925,
                    0.8015374100438547,
                    0.08514612838390055,
                    0.48109292121617786,
                    -0.052474069015400464,
                    0.6590200379265467,
                    0.49460372898650096,
                    0.5705591943681477,
                    0.5110688911436494,
                    -0.7411895748904193,
                    -0.8402864607105296,
                    0.1077143980338619,
                    -0.9264784034366874,
                    -1.8116888775565483,
                    0.2997715034966399,
                    0.49215373798837286,
                    -0.5270113288150765,
                    0.7139089988732318,
                    -1.5185990874011297,
                    -1.9042904694263285,
                    -1.8638864821638628,
                    -1.7237074683540272,
                    -1.3166082079338577,
                    0.7662580964945278,
                    -1.2813453267851849,
                    0.10189312258437229,
                    0.6321260413504184,
                    -0.15178084804555575,
                    -0.0073837031793404775,
                    -0.9056100491340164,
                    -0.5839781640615662,
                    -0.6119615146724927,
                    0.5562034757548138,
                    0.28559960034368004,
                    0.28080539845170654,
                    0.6188243524889465,
                    1.1040219160211828,
                    -1.060122861319784,
                    0.3910854895978854,
                    -0.49040453751590235,
                    -0.0949219896493589,
                    -0.8122164265478978,
                    1.0089813442671995,
                    -0.10585063503331915,
                    0.8026085286321392,
                    0.5315836910931759,
                    -0.0019094999232478326,
                    -0.8264151633693907,
                    -1.8031987282986208,
                    -1.5176781723142811,
                    -1.2292306630683891,
                    0.030142474415847897,
                    -0.33311645673297524,
                    -0.02506523515181064,
                    -0.08226754487560796,
                    -0.9795692098312037,
                    0.7282959913550806,
                    0.9000160921842444,
                    0.45085186549326123,
                    0.6202395321539091,
                    0.1934600381845213,
                    0.14069352560843845,
                    0.17090477091690312,
                    -0.2256559012474699,
                    -0.46307448804224616,
                    -0.40907513794340944,
                    0.43806446735102605,
                    -0.9375500014367736,
                    -1.6646238115532916,
                    -1.615778293082221,
                    0.3383502286527106,
                    0.46332091001859926,
                    0.17103511835523,
                    0.5863494456219157,
                    0.21719896834510383,
                    0.042918729839813576,
                    -1.1656686441623616,
                    -1.2896639968413428,
                    -0.2629724130227373,
                    0.4590207431621489,
                    0.8978306732975547,
                    -0.6425442300343243,
                    0.43023391445642156,
                    0.5052542262427432,
                    0.28696317251309533,
                    0.4384996883705823,
                    -0.9314352999103294,
                    0.020316073339528853,
                    -0.6839924713055159,
                    -0.4030270938033112,
                    0.2244066086729843,
                    0.1953266847150886,
                    0.44838709974785307,
                    -0.028591649394166238,
                    -0.11560714857938051,
                    0.2213087230480406,
                    -0.3839555002038088,
                    0.2599509742105526,
                    -0.15049112188619998,
                    0.2500987826706435,
                    0.8034068259288236,
                    0.001802152944228696,
                    1.2171737808637175,
                    0.2556467189218934,
                    -0.9450801959933736,
                    0.5168405518396911,
                    -0.6764509270390461,
                    0.38127729106279734,
                    0.9116979482247145,
                    0.0983707773728454,
                    0.9999157553116801,
                    0.30221163315560623,
                    0.3876538262331277,
                    0.8582628478090273,
                    -0.29760068922816285,
                    -0.8303737144366811,
                    0.028261156541637963,
                    0.6846864494549598,
                    -0.18006390336337424,
                    -0.686062290394068,
                    0.29669943910941826,
                    0.21513227495762072,
                    0.24209512116800233,
                    0.6600194995718317,
                    -0.08785477711838896,
                    -0.7314849500356555,
                    0.3445712346443485,
                    1.0771065434392304,
                    0.7210970957271758,
                    0.10005598379421295,
                    -1.0089617703647467,
                    0.23948493189597883,
                    -0.7502380849057483,
                    0.3206154430337757,
                    -0.30119375241590923,
                    1.1153506110791203,
                    -0.30082853963156775,
                    0.6964459105234981,
                    0.6769780934256249,
                    -0.8345275416353672,
                    -0.35801399220004404,
                    -0.19644763800469867,
                    0.11439213780484558,
                    -0.967471159159086,
                    0.8247658616164958,
                    0.8056263841754903,
                    0.6462109881411869,
                    -0.19780358693631497,
                    -0.7433128789671513,
                    0.38480812050071045,
                    -0.6860374831762492,
                    -0.5338833029297753,
                    -0.9314796637706821,
                    -0.5422979867590049,
                    -0.32491605556128844,
                    0.5749612213812172,
                    -0.09925537935383184,
                    -0.12227554033170035,
                    -0.09799736990408568,
                    -1.0349658951464331,
                    0.6152911182327729,
                    0.8024283927579078,
                    0.5142443608270407,
                    0.10995735665952583,
                    -0.45529260955876255,
                    0.7494582087298062,
                    0.7049011790061441,
                    0.29694702316000193,
                    -0.2526819845972208,
                    0.20153897055288605,
                    0.7549337348088678,
                    0.7928964648920465,
                    -0.4001402392637405,
                    -0.3704015340693535,
                    0.6921416253502463,
                    -0.9751767041677639,
                    -0.5564920717118178,
                    -0.3824113802634597,
                    -0.01159280526449626,
                    0.5338337710588886,
                    -0.07004900111065433,
                    -0.42316646486912346,
                    -1.3796178690329806,
                    0.3365250757526847,
                    -1.184221551893126,
                    -0.4909170947386202,
                    0.7328717681237389,
                    -0.34614446836464957,
                    0.1297648313005967,
                    -0.8256340034624124,
                    0.8056302444588469,
                    -0.15104171324360155,
                    0.6334406345903039,
                    0.5659890463536952,
                    0.43067738546760714,
                    0.28262094151636313,
                    -0.18266149244370733,
                    0.8840901155018401,
                    0.6214160032164706,
                    0.4112489628086078,
                    0.3924111369765136,
                    0.5879831913547358,
                    0.16010237622547877,
                    0.3532812217649828,
                    -0.4264102439104434,
                    -0.5921076107720027,
                    -0.3880885794093399,
                    -0.776491570732474,
                    -1.0777457886837605,
                    -0.2473371723203454,
                    -0.31254672538390116,
                    -0.286940621370211,
                    -0.4338631290250723,
                    0.5367754543268088,
                    -0.47937631092731753,
                    -1.0281639866442158,
                    -0.5764535441374657,
                    -0.4290572856895471,
                    0.18569270019463976,
                    0.8030047104487134,
                    0.30825247339334894,
                    -0.14944986937233076,
                    -0.6387921488078336,
                    0.5013740685834294,
                    -0.7642274083605347,
                    -0.5506630931895651,
                    0.7200192974661133,
                    0.8299100113205677,
                    -0.15112233407873288,
                    0.7633967517214424,
                    0.36723707583004545,
                    0.7503009050400236,
                    0.8816931978241458,
                    0.4677068774698297,
                    0.36995801211973733,
                    0.7669767150291263,
                    0.9159139134666228,
                    -0.45832849407439724,
                    -0.38890751520307537,
                    0.47938928626964883,
                    0.10420882004677529,
                    0.09432154361392281,
                    0.7877842438098801,
                    -0.16247126803393347,
                    0.6123110071171366,
                    0.8529261584316729,
                    -0.15341290992547224,
                    -0.9243704561063464,
                    0.9592409555339423,
                    0.07272727758843511,
                    -0.86105266160417,
                    -0.5774277751616474,
                    -0.9080623619413974,
                    0.9642418531000407,
                    0.04215945891050343,
                    0.6072440540930188,
                    -0.938882851161692,
                    0.31117187771336097,
                    0.915340881411564,
                    -0.3806101626125804,
                    -0.25609213749327275,
                    0.11461930307372059,
                    -0.9317456514870555,
                    0.41896933912028045,
                    -0.8338865199860956,
                    0.7382870243389086,
                    -0.47653902387351876,
                    0.7103766536685253,
                    -0.966925425424189,
                    0.6558169203314619,
                    -0.07975973889186583,
                    -0.571932734864806,
                    0.5555971749242903,
                    -0.8016940237014343,
                    -0.6100469769143324,
                    -0.08234391123654605,
                    -0.6216019039114828,
                    -0.6873586661141571,
                    -0.37526006927512756,
                    0.9405020969539288,
                    -0.25533301272600806,
                    0.7730495057752893
                ],
                -0.1427936274235541
            ],
            [
                [
                    0.5509882620406512,
                    -0.42066681247269,
                    -0.8259123977617031,
                    -0.6073400382059126,
                    -0.9488179401542631,
                    -1.0301195454230234,
                    -0.13189568213510744,
                    -0.10664612196851114,
                    -1.040939676044314,
                    -0.012976332198156656,
                    -0.051077865150359614,
                    -0.673826504656125,
                    -0.6820212696689374,
                    0.825305849317527,
                    0.4370889956523869,
                    0.23669908590098293,
                    0.22196743202909766,
                    -0.2949765146611824,
                    0.011780314238117436,
                    -0.3709322076735719,
                    0.6507245076735466,
                    0.7818765269390975,
                    -0.8669276630124886,
                    0.9753009353735056,
                    -0.7586754838596563,
                    0.7762532410111846,
                    -0.7899652007260742,
                    -0.7599207502485894,
                    -0.8584231372452713,
                    -0.31651482627364147,
                    -0.3782780735540954,
                    0.8834018466530769,
                    -0.18843874471928013,
                    0.32285213269130925,
                    -0.022810229257693413,
                    -0.40227328912006816,
                    0.5613968232683432,
                    0.5572080785930621,
                    0.8973588460697588,
                    0.2875446670267462,
                    -0.49184727492891234,
                    -0.3391390684084479,
                    0.26811257009833944,
                    0.501698797347408,
                    -0.371997660832137,
                    -0.5369192049846166,
                    -0.9218377232330363,
                    -0.558349955515646,
                    -0.08354193853792317,
                    0.16132290386881393,
                    0.12215959800661529,
                    0.9241110905939905,
                    0.6538829522136127,
                    -0.40250677775058863,
                    -0.904441461143684,
                    0.7424585741347083,
                    0.676518719361195,
                    0.6970943015242396,
                    -0.3606034756754377,
                    -0.5271525598758016,
                    0.9401618488883227,
                    -0.5244351194933095,
                    -1.0464035252535069,
                    -0.9037828749648256,
                    -0.0285034905354229,
                    -0.8678465336021418,
                    -0.39707653728121745,
                    0.33967611870076075,
                    -1.0415372664979972,
                    0.15011695070086187,
                    -0.35445160071819515,
                    -1.5250044244937755,
                    0.012656768436755911,
                    -0.4809841569879125,
                    0.396559010199854,
                    -0.11874909333998598,
                    -0.8924060249550618,
                    -0.4377298559363766,
                    -0.7286268277391579,
                    0.1010540357994343,
                    0.1702899470778232,
                    0.669688785814716,
                    0.2603542086780297,
                    0.5387858540833927,
                    0.2746162794754605,
                    -0.15660885957484516,
                    0.6648719460606842,
                    0.11782516691252547,
                    0.3391004814691116,
                    1.0422967300520594,
                    1.121935073191452,
                    -0.41998167809739617,
                    -0.7629844585796183,
                    1.2440751928326237,
                    0.24105215387867007,
                    -0.32608364941673024,
                    -1.474588738473308,
                    -1.4240826357735383,
                    -1.8400936725826205,
                    -1.6132355206741629,
                    -1.1412707437240812,
                    -1.850253953452194,
                    0.04360007672790381,
                    -1.683748629423148,
                    -0.09587708228080487,
                    -1.9036514162701634,
                    -0.6725923699094846,
                    -0.7138491835727925,
                    -0.886689805227072,
                    -0.008986835968892092,
                    0.04948780892352489,
                    -0.46033693826824096,
                    -0.6623417509424918,
                    -0.7822659460635567,
                    -0.458213231945116,
                    -0.006285115359952641,
                    -0.03255459297093704,
                    1.1578711798513874,
                    0.05822737729255947,
                    0.044115449707402665,
                    0.177111938576674,
                    0.12296983109674416,
                    0.20823807999626817,
                    -0.6750108305129517,
                    -0.2781970699759182,
                    -1.9257445821537678,
                    -1.360736305350494,
                    0.1135289507625174,
                    -0.33675451413924196,
                    0.01425336505381138,
                    0.34772125813653093,
                    -0.1796869413766235,
                    -0.10213289424057102,
                    -0.02038739129659825,
                    -0.21297501286710865,
                    0.2025567861973464,
                    0.46366056190356203,
                    -0.4895558525733723,
                    0.7127298250223306,
                    -0.8072572689188446,
                    -0.2246822123016543,
                    -0.2559301260918471,
                    0.3256903906298866,
                    0.4311318139584078,
                    1.3383475861333016,
                    1.4392272282885938,
                    1.213829363347368,
                    1.6385278603988918,
                    0.5965181546299606,
                    0.6141551540973976,
                    0.8968952721409432,
                    -1.151197419517914,
                    -1.034675903237703,
                    0.48341114369374527,
                    0.10728402250598998,
                    -0.6762413951407198,
                    -0.2981144931259088,
                    0.5279009874520773,
                    0.6011015064893458,
                    0.09620973026828082,
                    -0.23609428612399036,
                    -0.48272011872762555,
                    0.04930877175023627,
                    0.3323681195734913,
                    -0.2826842427164918,
                    -0.017818004788753287,
                    0.11259041311552043,
                    -0.15320376745584463,
                    0.1662560516406102,
                    0.004738997608612669,
                    0.24491475457644413,
                    0.8550212111453735,
                    1.798545363122132,
                    1.3405541819305673,
                    1.043869777344079,
                    1.494497721209138,
                    0.4856332237599911,
                    1.3970963485276098,
                    0.2446354104315532,
                    -1.1766876693273811,
                    -0.7587510551093604,
                    -0.2528891474168471,
                    -1.1520183409202707,
                    -0.3724626325485972,
                    0.7175415169905516,
                    1.0869030021449086,
                    0.2506606965336423,
                    0.06685228600625515,
                    -1.5495164498164022,
                    -0.22179634793831218,
                    -0.5333917629941382,
                    0.38702111938922745,
                    0.1584152373833869,
                    -0.17312243621560475,
                    -0.6580285543990645,
                    0.7539314564351065,
                    0.25471526956145785,
                    0.9431135261643332,
                    0.21408181079606725,
                    0.993748118349107,
                    1.8598690537775846,
                    1.0356199028374709,
                    1.2113711861344818,
                    0.11357508622837946,
                    0.9837590766229507,
                    0.6149249889444616,
                    0.1676414792849307,
                    -1.2788629519095762,
                    -0.821349445724721,
                    0.06951552952446927,
                    0.2870611427634399,
                    1.7122955357109282,
                    0.8804244063270245,
                    1.3144940253141435,
                    0.6891750616828201,
                    0.6117129286472844,
                    -0.31123970053203454,
                    0.2725541256336288,
                    0.3867634134064577,
                    -0.4494014821819443,
                    0.7556929351259848,
                    -0.5875459405309171,
                    0.22047422863134616,
                    0.6608169719451229,
                    0.5311264805097522,
                    1.0447647064043646,
                    0.47665387028960476,
                    0.4014493358477415,
                    1.800862070321592,
                    0.4152467475337004,
                    1.5963091929643638,
                    0.5396881128421096,
                    0.689404662380579,
                    1.2132616459581094,
                    -0.4981051877369627,
                    -0.6008923883941254,
                    -0.8459695838564711,
                    0.0021694025166797064,
                    0.7729534165413723,
                    0.9458976921617778,
                    2.2499992831716824,
                    0.7810595652221239,
                    1.1999145399965214,
                    -0.2674044114000342,
                    0.3009651033855535,
                    -0.3571938036002476,
                    -1.717441335836286,
                    -0.17905260495662897,
                    0.004519806784480242,
                    0.5250586807495417,
                    0.729728700426553,
                    -0.11777820976397813,
                    1.0650597247309044,
                    0.8333116371921298,
                    0.9632436119483758,
                    1.0072210193647981,
                    1.998481940946428,
                    1.362124721092566,
                    -0.07140828843148843,
                    0.7519693311299347,
                    -0.1517769440423714,
                    -0.47664207389643176,
                    -1.1488542931727428,
                    0.5240036285234678,
                    0.1921386386342827,
                    -0.4608132217353241,
                    1.337958270092381,
                    2.8612468422185255,
                    1.7344132871497775,
                    1.9310473015747385,
                    1.2057095172931602,
                    1.248165210733976,
                    0.3493394991814612,
                    0.311176745510035,
                    -0.22575931689038814,
                    -0.2732310179405926,
                    -0.029078486734305384,
                    -0.5975033948098497,
                    -0.6708614498721318,
                    -0.6782037134275554,
                    0.27641699442009515,
                    -0.5242196808050483,
                    2.103212176635102,
                    1.0455767138880359,
                    1.9705539493335174,
                    1.0891013203251303,
                    -0.5544306466123531,
                    -0.5815923728906065,
                    -0.47831570448738964,
                    -0.9019067822585023,
                    0.09601633219298512,
                    -0.04496615989854907,
                    -0.23427316217622002,
                    -0.8736471940688041,
                    2.0686150962580228,
                    1.2472652037669703,
                    2.373412796015955,
                    2.8118977824858016,
                    1.4995816713496604,
                    1.2147048824591125,
                    0.4825507682399862,
                    1.257737175427229,
                    0.5939133474206221,
                    0.3124971823458035,
                    0.8605328936925185,
                    -0.2445540558412749,
                    0.5017959923102103,
                    0.7433314688697212,
                    -0.143629021384512,
                    1.2485258967932185,
                    0.13116918400432998,
                    1.7639197672222697,
                    1.305364182878649,
                    0.14737794895436823,
                    -0.40493816411902345,
                    -1.967443759238445,
                    -1.3208265561382613,
                    -1.6916964542258843,
                    -0.20554422672800104,
                    -0.6138583459364606,
                    -0.5215007705776784,
                    0.2889430623308207,
                    0.9682452408900756,
                    1.0649167899163137,
                    0.37205908237259305,
                    2.347611367763314,
                    1.87716989104178,
                    1.2862068650364946,
                    1.4542067460231274,
                    1.0834447174065303,
                    0.3905711337100051,
                    0.522127853935626,
                    0.9952175203026253,
                    0.7894458464369332,
                    0.20169617783040078,
                    -0.30824014008695766,
                    0.01667988114842055,
                    0.5234154607939685,
                    -0.18617469106474174,
                    1.033872632553313,
                    0.22186869357513722,
                    -1.2696678721859924,
                    -0.41593360960807724,
                    -2.184254611407076,
                    -0.7254454459124219,
                    -1.6045110724322755,
                    -2.084040177354123,
                    0.4339642704784877,
                    -0.7287168228635671,
                    -0.6731709599347399,
                    0.4320977833167631,
                    -1.5242890060459733,
                    -0.1445387771468854,
                    0.6293411007240887,
                    0.07937384225517484,
                    0.7649588319419018,
                    1.6905853011125316,
                    2.1951068649130088,
                    -0.011023774747393335,
                    0.225973923414454,
                    0.10785519527070311,
                    -0.4715114662852595,
                    0.9177178681487859,
                    -0.5188151634364411,
                    0.02949778923237001,
                    -0.55121133667181,
                    0.9286891204815825,
                    -0.07959591905386855,
                    -0.49457314553235615,
                    -0.42163369332374867,
                    -1.5292922177365305,
                    -0.3872116437170188,
                    -0.31713167818598403,
                    -1.5569687867040105,
                    -0.8249659517922425,
                    -0.6839371708004547,
                    -1.0109196419271498,
                    0.381308141143275,
                    -0.4902032079276312,
                    -1.0172565012914585,
                    -0.02801753745806065,
                    -0.951881876542326,
                    -1.4285961922322623,
                    -0.30360595470990986,
                    -0.006745141353678592,
                    0.32253651026199437,
                    -1.4380998288961764,
                    -0.18125300485111062,
                    -0.07029512164569027,
                    -0.2733732596359698,
                    0.682557212082405,
                    -0.5374046858180004,
                    -0.008255998188198522,
                    0.04519902701322401,
                    -0.8408499731745129,
                    -0.46880975353243787,
                    -0.42968131749791466,
                    -0.8866306542076271,
                    -1.0985107435115422,
                    -1.6647315782848853,
                    -1.1522982844401846,
                    -0.7421143560413328,
                    -0.20871782999767244,
                    -0.8949478387699096,
                    -2.4505790397357603,
                    -0.6307052214962343,
                    -0.799648830026468,
                    -2.262770891845764,
                    -0.12559821867068324,
                    -1.2062760434422355,
                    -1.2507960657700863,
                    -1.0743918043836067,
                    -1.5369982095454044,
                    -0.20402928347625374,
                    -0.017060932847352845,
                    -0.6186936001598216,
                    -0.6528822903823194,
                    0.9627138233249841,
                    0.15814532031181064,
                    0.25389972263841964,
                    -0.7911992801595676,
                    -0.42047953294731477,
                    -0.8505262002888947,
                    0.45968975967325065,
                    0.6617647417925532,
                    -0.5109805514631552,
                    -1.7342101515658874,
                    -0.8930603794303476,
                    -0.14108293129456298,
                    0.12016757933179222,
                    -0.14332098610393454,
                    -1.9569844766932802,
                    -2.218447287908277,
                    -2.1486084067961735,
                    -2.344881481019115,
                    -2.94818506937404,
                    -2.395600656096708,
                    -1.4077765513430065,
                    -2.6055050950841387,
                    0.29195627351917564,
                    -1.1575268513956314,
                    -1.5968422352997502,
                    0.35641396139545445,
                    -1.1200416890338827,
                    0.32602332977927334,
                    0.3134656900014078,
                    0.15185028989769092,
                    -0.322424582044788,
                    0.7347454936215548,
                    0.4752433177299834,
                    -0.469365659393655,
                    -0.6066028970459363,
                    -0.18013287760728972,
                    -0.7452729214770041,
                    -1.7071469993740658,
                    -0.5652418164277057,
                    0.41660352830871716,
                    0.6170282597139857,
                    -0.3347060595942969,
                    0.5128925123964657,
                    -0.8867155758615601,
                    -1.950896131632386,
                    -3.449269271485117,
                    -2.5947458184374654,
                    -1.1144502463761694,
                    -1.9578798637213306,
                    -1.572627912393589,
                    0.18697622564929656,
                    -0.8212883059382671,
                    -0.9306890636258444,
                    -0.43357316415468966,
                    -0.28787249526753117,
                    -0.8287432761496037,
                    -0.8554249785961311,
                    0.014442213328207656,
                    0.09120185500999387,
                    -0.2105247709412961,
                    0.5629450269016394,
                    -0.6924756625804475,
                    -1.1222454283304006,
                    -1.8468175168301189,
                    -1.391995467118761,
                    -1.8724877058137936,
                    -0.7703532802895868,
                    -0.32983934360315764,
                    0.7320978019833048,
                    1.1796332570136128,
                    1.1408490545081187,
                    -0.31347591711187217,
                    -1.5924011239101594,
                    -2.29115843384379,
                    -0.43581076762366966,
                    -0.5003278269191868,
                    0.2651900499786745,
                    -1.1841104186729858,
                    -0.8367788206892254,
                    0.09103507346450637,
                    0.8026741197383696,
                    -0.7986071322477787,
                    -1.0551523926714403,
                    -0.25546915215638905,
                    0.6529970312690628,
                    -0.8318675363927298,
                    -0.006329965151808405,
                    0.3484326937492865,
                    0.67386929386084,
                    0.26182137830285424,
                    -1.112876564775639,
                    -1.1879353069071164,
                    -1.0534064227264115,
                    0.2601618702839152,
                    -0.5421252495402156,
                    -0.3787956209300245,
                    1.6485716666080086,
                    0.16901896790416887,
                    1.1903201706383282,
                    -0.03791577643454539,
                    -1.2944684077018052,
                    -0.9760618961483909,
                    0.6129604896402865,
                    1.2931977763280806,
                    0.6832742199952141,
                    0.32290868202630985,
                    0.2258214388752091,
                    1.3504882054664802,
                    0.26621183587769365,
                    0.16639515606655567,
                    -0.8503869937028603,
                    -0.12635337193085106,
                    -0.401800237557875,
                    -0.0060978713957612184,
                    -0.4674651822477918,
                    -0.4285645720825015,
                    0.16000005876721057,
                    -1.3096251579025953,
                    -0.6420693312951019,
                    -1.0995036458000833,
                    -0.240706635327776,
                    0.4367230565966645,
                    -0.5851912381970719,
                    1.042675141903553,
                    0.13690070738328808,
                    -0.29313708307300074,
                    1.6343788399040124,
                    -0.2308481481290154,
                    -0.4307180630729982,
                    -0.6189689048423994,
                    1.3879175367155376,
                    0.9911884355895443,
                    0.776312129945683,
                    -1.436847354605293,
                    -0.9077541479859328,
                    -0.2627588130756252,
                    -1.9085169206579877,
                    -0.08009073124478625,
                    -0.8498674687605421,
                    -0.5897805110884236,
                    -0.23086752631082885,
                    -0.4647634089254483,
                    0.9591713881951218,
                    -0.7275722066721678,
                    0.4587678744315547,
                    -0.9554154029432503,
                    -1.0433801686557014,
                    -0.13242001910578413,
                    0.17452634900865943,
                    0.1975962761852046,
                    0.5185609527841004,
                    -0.2250935970657643,
                    -0.5377915836666225,
                    -1.251044626274477,
                    0.17667879490425728,
                    0.5771978786280237,
                    0.10167435666681317,
                    -0.46687949884360574,
                    -0.5092595889270645,
                    0.41516086926703044,
                    0.1462612452440683,
                    -0.9374539652557634,
                    -1.1686100727731914,
                    -1.3790050819672361,
                    -0.08111793967456409,
                    -0.6568532010654843,
                    -0.05186654303157325,
                    0.10711330878230445,
                    -0.4568159719261292,
                    0.9144726484319774,
                    0.4311479711488164,
                    -0.582451916483248,
                    0.6388787724738607,
                    -1.1762389968955407,
                    -0.5169955248074538,
                    0.25020300109240745,
                    0.05832909679607499,
                    0.4801053153228103,
                    0.8662716443880618,
                    -0.5305115609454469,
                    0.7039546467955349,
                    -0.21566244775110358,
                    0.9055728017958743,
                    -0.8128270846113433,
                    0.1404730565913572,
                    1.5811673385568672,
                    1.5372142215385889,
                    0.7880434983286835,
                    -1.0239496058362214,
                    0.746051852782085,
                    -0.00817434984591801,
                    -0.5279343826214336,
                    -1.2324078916568446,
                    -1.3888011733897776,
                    -0.6154401594795618,
                    -0.8455843463892634,
                    0.8768610488844835,
                    0.6609168178235731,
                    -0.020664742706355987,
                    -0.48743548188999286,
                    0.5197311978900004,
                    -1.315734140087938,
                    -0.22446459205675448,
                    -0.10402313571491499,
                    -0.9723629785293816,
                    -0.13544677585654913,
                    0.24192487040396846,
                    -0.7308295866388054,
                    -0.45995130962295744,
                    -0.3302358773140257,
                    -1.515869295307644,
                    -0.6903963611658264,
                    0.6476327311052306,
                    0.6452974769927916,
                    1.1001792359459506,
                    1.3115633215718832,
                    0.6856499539996919,
                    0.9056630779076299,
                    0.5225667851814314,
                    -1.1217341434271322,
                    -0.12595429697816482,
                    -1.2218876545333694,
                    0.8390073570883557,
                    -0.1506806833435201,
                    -0.022384307271586357,
                    -0.8771867532233639,
                    0.8030467027175474,
                    -0.19635284281019194,
                    0.9990143652290144,
                    0.8510623762555685,
                    0.35984747723015825,
                    0.9059690217916619,
                    0.6147801975332455,
                    -0.2888002346135744,
                    1.446084675040977,
                    -0.21434617737869532,
                    0.628345318338167,
                    -1.2351751106058666,
                    -1.1024500333803895,
                    -0.5479909059442454,
                    0.20037948700344646,
                    0.6872570427746703,
                    0.8284007955630899,
                    -0.26154572592472974,
                    0.5530959254349285,
                    0.1858068928563195,
                    0.9088795080201146,
                    -0.6959010180393053,
                    0.3514548336249436,
                    0.9218353263606877,
                    0.013560771389784253,
                    0.29631980442094835,
                    -0.2992707483206928,
                    0.6074441584410302,
                    -0.1776912907038024,
                    0.6472666258428792,
                    0.766283521873813,
                    0.7316193876136552,
                    -0.7712134321321861,
                    -0.5220316621072294,
                    -0.2797239213346086,
                    0.5820358181754328,
                    0.6531068542629297,
                    0.5893995951655626,
                    -0.7367269725513813,
                    0.9975999989792839,
                    -0.3771181955697947,
                    -0.555450799250561,
                    -0.5937057119404107,
                    0.9668479929593723,
                    1.4036999821587282,
                    0.16086760276939663,
                    0.11774312176575406,
                    0.8019984530404968,
                    -0.3121496462315625,
                    0.5372742253631042,
                    0.6523485195979082,
                    -0.32298198139979445,
                    0.8041645760971028,
                    0.02595348209250381,
                    -0.19915562020701214,
                    -0.5237070541906061,
                    -0.4161850048702702,
                    -0.8728806966892093,
                    -0.6803923877030227,
                    -0.3966609544071794,
                    0.5958625403977678,
                    -0.06405518184932629,
                    -0.8196037365548617,
                    0.16569446746057706,
                    0.4910627030879802,
                    -0.09645997870660027,
                    -0.9400802344626058,
                    0.05542646872940456,
                    0.5646840914111302,
                    0.19777689372973892,
                    0.4909706571110314,
                    -0.19509894721957427,
                    0.611032264846911,
                    0.3130211299691106,
                    0.9434525516477895,
                    0.35463050472606994,
                    -0.9535298100241965,
                    0.6666808688271537,
                    0.6140654249224579,
                    -0.25523762776366254,
                    0.14439700331586566,
                    -0.4109538613961805,
                    -0.39344575596691467,
                    0.6537684156670374,
                    -0.5590028366815893,
                    -0.6263621383414268,
                    -0.8933304018891008,
                    -0.6069728471650784,
                    -0.4777612860746816,
                    -0.9728390792884379,
                    0.47858324069850144,
                    0.7893369441076129,
                    -0.7009381289533861,
                    -0.9997160527888003,
                    -0.6503121069676735,
                    -0.27945431366932877,
                    0.7269189978840964,
                    -0.22032448157679396,
                    -0.7604034488133192,
                    -0.7950234658284,
                    -0.7487270171045022,
                    -0.21570280213449747,
                    0.1444810394378042,
                    0.16332946401591417,
                    -0.5577498184616969,
                    0.615208096556031,
                    -0.6899881333094412,
                    -0.9441982686979493,
                    0.7910832179234097,
                    0.4529609900908369,
                    -0.49825851313836367,
                    -0.9084993296247608,
                    0.3847977548082433,
                    0.2045509453059613,
                    -0.6711291162465283,
                    -0.002065388800151613,
                    -0.26171635714503716,
                    -0.46703157328149114,
                    -0.046389012550232644,
                    -0.5340160240495919,
                    0.30981704646947517,
                    -0.9890254802024343,
                    0.8590381931138171,
                    0.05481895204229281,
                    0.41857731522598063,
                    0.2396971257642555,
                    -0.24944706491048318,
                    0.44795159778534943,
                    -0.03790670534233289,
                    -0.35343775645292763,
                    0.6901017415814799,
                    0.1421036511457947,
                    -0.15914773534884086,
                    -0.09815794735614469,
                    -0.5442660198648774,
                    -0.45555495369923893,
                    -0.9107402158210773,
                    -0.09399011362571486,
                    -0.5473836421385476,
                    0.9357160848651505,
                    -0.6815835932824037
                ],
                -0.46851449626096325
            ],
            [
                [
                    0.3492807990124256,
                    0.7524744240799262,
                    0.5672851930378102,
                    -0.5140728769857428,
                    -0.15651219132396044,
                    -1.0021733647036881,
                    -0.860688867125139,
                    0.13297874093650125,
                    0.52461549530797,
                    -0.25764057131089874,
                    -0.02133906888427249,
                    0.8366005262199787,
                    0.586895610710518,
                    -0.21364631162721434,
                    -0.6222478601278105,
                    -0.4899732522168891,
                    0.6888933572167265,
                    0.18248012468836255,
                    0.8301490014449909,
                    0.04125456618696265,
                    -0.5094975247001999,
                    -0.6872877121546133,
                    -0.6260205259865491,
                    -0.7414925566217601,
                    0.44075382279302033,
                    0.6997979080151875,
                    0.4356769161656664,
                    -0.9137409352663355,
                    0.7111823843752352,
                    0.4043495748241017,
                    -0.25783134935472596,
                    0.9789503479161457,
                    -0.06655011374878506,
                    -0.5029449326547881,
                    -0.5198691023733857,
                    0.7084694759098952,
                    0.5089778768458733,
                    0.5316281009359944,
                    0.9711958003444077,
                    -0.7254961284612115,
                    -0.5536754913579682,
                    -0.1514488634447183,
                    -0.12836812216955187,
                    0.5355917649754641,
                    -0.5617820917183198,
                    -0.23006413432434095,
                    -0.6126294228803821,
                    -0.6942795597322681,
                    -0.29155088226907133,
                    -0.9706579061137719,
                    -0.15606567721650952,
                    -0.2562642246820867,
                    0.8541809173729691,
                    -0.4611206485794366,
                    0.7368282492688547,
                    -0.3432217099651622,
                    0.9991459517635364,
                    -0.18905180927233212,
                    0.8051362221591328,
                    -0.09556596841370943,
                    0.5457130728649631,
                    0.310095039594292,
                    -0.7601521843192306,
                    0.701392264752921,
                    0.8831900450571549,
                    0.4178586726456437,
                    1.0958066207672796,
                    1.3097943197520308,
                    -0.5508266377497653,
                    0.8266110813115238,
                    -0.2927031551147691,
                    0.14324052771402682,
                    -0.2249437207713385,
                    -0.06137640451931124,
                    0.2273455518791102,
                    -0.7439650075417554,
                    0.5168389928292163,
                    0.6732665549338691,
                    0.838516596536756,
                    0.886456275273247,
                    0.808273433108854,
                    -0.10714774882249967,
                    0.7215475814921126,
                    0.4986398684260651,
                    -0.36508461256542346,
                    -0.2207141858406625,
                    0.022780061764934204,
                    0.049974596693387364,
                    -0.13015183233642794,
                    0.3095729110921439,
                    -0.439906993221742,
                    0.896383127587147,
                    -0.5034545976415606,
                    0.09939808134962949,
                    0.05793501022143159,
                    -0.016495844612800483,
                    0.45338773872646165,
                    -0.43210245721453217,
                    -0.0014063858551024518,
                    -0.1728831809286705,
                    0.22038682881956984,
                    -0.39802648504063465,
                    0.21932543091716794,
                    0.4193839470770332,
                    0.03412351582568657,
                    -0.09408947554133448,
                    0.986505332107917,
                    -0.541189619689651,
                    -0.2169727007314003,
                    0.6421976249114699,
                    0.7727137591863522,
                    0.11422352571232675,
                    0.557495108007154,
                    0.6818590047124302,
                    0.231448924189371,
                    -0.6777653679168015,
                    0.049764469790846415,
                    -0.5362224574664525,
                    -0.025177603962354182,
                    -0.09247319933271568,
                    -0.1629042502482557,
                    0.6883782234823533,
                    -1.2945057693439364,
                    -0.7732448589766993,
                    0.3220050417759492,
                    0.3488210612546568,
                    0.5195808681276005,
                    -0.3715655363657228,
                    -0.028957903954068276,
                    -0.6249964588734039,
                    -1.4334330666450203,
                    -1.3100797228018106,
                    0.29990341107325075,
                    -0.5850135915735336,
                    -0.45465641482662006,
                    0.45193910572893264,
                    -0.6512016788355032,
                    0.5141901924419999,
                    -0.6325837594448798,
                    -0.23047360977013343,
                    0.47791743679854304,
                    0.35191628958272975,
                    -0.5334260664576057,
                    -0.20562036251017649,
                    -0.6906592743236797,
                    -0.21140980341407367,
                    0.7246161439233362,
                    -0.9058681066057217,
                    -0.9861333491897605,
                    0.9109953096210452,
                    0.7949298520350123,
                    1.3673957246475774,
                    1.0462575860528014,
                    0.7494532843777503,
                    0.06388967096557281,
                    -0.44551866832022147,
                    -0.32079307296958975,
                    -1.6151041860732809,
                    0.6343891127240504,
                    -1.1792555784556313,
                    -0.6037113100055023,
                    0.5767161170004048,
                    -0.9946334131069449,
                    -0.40708048349619097,
                    0.11291248727721791,
                    0.18235804082083668,
                    -0.6661682906842845,
                    -0.7996652346329216,
                    -0.48180774061728227,
                    -0.7034713435020363,
                    0.03237992488184569,
                    -0.5706166609607548,
                    0.21610581031914844,
                    -0.8102212633872475,
                    0.5770079892952353,
                    -1.6686229006176447,
                    -0.14064435190329835,
                    -0.8481837716508392,
                    -1.252559226254409,
                    0.17055165647420606,
                    -0.9170432835876798,
                    -1.0451194489891293,
                    -1.5524548786972479,
                    -1.0693691278476005,
                    -0.7667161859110039,
                    0.3242873419847051,
                    -0.35036778336632945,
                    -1.325081934698933,
                    -0.054295544304257384,
                    -0.4423420480572172,
                    -0.3489703257401157,
                    -0.9606138211589476,
                    0.5314740873799058,
                    0.6858892105749079,
                    -0.11204924224178527,
                    -0.19650699900130486,
                    0.15178934230561159,
                    -0.11284980409021492,
                    -0.3415291862913203,
                    0.5858349730381727,
                    0.8388521163936284,
                    -0.18980593511818222,
                    -0.1906443973399215,
                    -1.3640746114199538,
                    -1.339548844410052,
                    -1.086146148466649,
                    -0.37223652218418907,
                    -1.3521844652892538,
                    -1.0695820817907762,
                    -1.3189454826300149,
                    -0.2121425624399789,
                    -0.23269604629604548,
                    -0.2803944558301662,
                    -0.17858381174320764,
                    0.28203943173926127,
                    0.35530634011518597,
                    0.3416144830268618,
                    -0.1680930683909623,
                    0.6676860366233346,
                    0.39276293635417336,
                    -0.2630962358152546,
                    0.05011219634551602,
                    0.964852004182694,
                    0.49226045327966905,
                    -0.5069240504710854,
                    -0.6575271762482761,
                    0.709008880640961,
                    -0.8762962193902493,
                    -0.7028629004917145,
                    -0.1523395512443636,
                    -1.2667437568697841,
                    -1.5119218059583313,
                    -0.16205287430904367,
                    -1.0967539519284022,
                    0.14208398557480156,
                    -0.2631883581492912,
                    -0.19763954085071306,
                    0.5146494282532963,
                    0.3882334721822691,
                    1.343286537602125,
                    -0.2471489423026409,
                    -0.17514146027738037,
                    -0.35920560048667743,
                    -0.22402464033048783,
                    0.338466933062835,
                    0.3250753468620194,
                    -0.07982864448253912,
                    -0.004980886984329482,
                    -0.058542223245744734,
                    0.5933867309510574,
                    0.9414577462473035,
                    0.3044532569264815,
                    -0.15388709144301463,
                    0.7181769400119931,
                    -0.00171864387091408,
                    -0.45804907158559477,
                    -0.6114652573016014,
                    0.4808796751907892,
                    -0.7941478146106108,
                    -0.5532218626535914,
                    -0.7490104104567082,
                    -0.11163750596649723,
                    -0.0010450359113349428,
                    -0.05442529073360554,
                    -0.05511323561185976,
                    -0.49037734463515853,
                    0.3956149212207193,
                    -0.6553289314048801,
                    -0.1949701938003073,
                    -0.35896528022249574,
                    -0.7350439186234392,
                    0.2237263135914277,
                    0.58270677113757,
                    1.5340038418126083,
                    -0.04110710912802554,
                    -0.8246257262231877,
                    -0.6621218391170977,
                    0.37290485480449426,
                    0.837235864749506,
                    -0.013564794199891539,
                    0.1269452509049884,
                    -0.39358248267451496,
                    -0.7532331598769495,
                    0.3284832701064308,
                    -0.3429531308222777,
                    -0.7101831429384967,
                    1.4723957018195848,
                    0.2599523111309089,
                    -0.26677881008140353,
                    -0.4546820428291369,
                    0.2621039729931024,
                    0.2971045103621101,
                    0.45540137751121956,
                    0.6078269693205302,
                    0.15176852594772525,
                    -0.499102539844202,
                    -1.4390786406691198,
                    -0.7028133203489535,
                    -0.15804206929407894,
                    -0.14171988434778737,
                    0.44751005177545944,
                    0.3517223055089286,
                    0.22513389057342603,
                    0.6237067948832226,
                    0.6360949488499545,
                    -0.9565263860741048,
                    -0.18147749317516085,
                    -0.2551101924114296,
                    -0.7138027262974734,
                    -0.43741919217583813,
                    0.1943137100831142,
                    -0.10707853488173627,
                    -0.2408045259282375,
                    -0.10628786706635956,
                    0.37131131380441906,
                    0.5584310173051915,
                    0.14177587483599705,
                    1.533629899236252,
                    -0.12763916622369822,
                    -1.5981867968920596,
                    0.2760491049270485,
                    -0.1147944555289407,
                    -1.311173920031073,
                    -1.2969187741072825,
                    -1.6440032747755484,
                    -0.8499164538434553,
                    -0.6054783587202573,
                    0.47559050282106036,
                    -0.559668322027557,
                    -1.4096140951740301,
                    -0.8577897682763185,
                    0.6349299409204651,
                    0.7675751093836597,
                    0.7402522513014799,
                    -0.8404187494136472,
                    0.29917699245190943,
                    0.4776131998969538,
                    0.622403002665809,
                    0.10915339316715984,
                    1.032914662144983,
                    0.04733232952764604,
                    -0.3934562690687593,
                    0.564229989811404,
                    -0.28512703648951904,
                    -0.24086473558103727,
                    0.12899820035603674,
                    -0.7124983916179041,
                    -1.7784968649193387,
                    -0.36995011692998037,
                    -1.3124282493665278,
                    -1.4692398378446128,
                    -0.7576760079656423,
                    -0.041991287975632945,
                    -0.2805141753677428,
                    0.9068036282721895,
                    -1.0173695501895204,
                    0.04726969255548007,
                    -0.22356925345150877,
                    0.7417099666304767,
                    -0.9162217033756116,
                    0.4293099320796728,
                    0.38197267770931603,
                    -0.5091006662372277,
                    0.281009405044244,
                    -0.24269670391611897,
                    -0.029925732531086872,
                    -0.1696209821573692,
                    -0.2733921713188574,
                    -0.29107093157002584,
                    -0.47029322505890875,
                    -0.22682196506430513,
                    1.4327433390501896,
                    -0.8874333065446713,
                    -0.1523096867163913,
                    -0.8889011092557885,
                    -1.493277117032689,
                    -0.834959119498396,
                    -1.7140632839912857,
                    -1.4530438305918107,
                    -1.0407952032950578,
                    -0.5656046630206801,
                    0.700441299794313,
                    -0.35813369625831,
                    -1.0356187282315534,
                    -0.22011632949894597,
                    -0.8776463107965734,
                    -0.2951160896480056,
                    0.09875521428266666,
                    -0.7397206759913533,
                    -0.39376964014661825,
                    -0.26306865986302647,
                    0.3788079402006351,
                    -0.8896985115834611,
                    -0.7490477874978081,
                    0.4134406510174369,
                    -0.19295660124729594,
                    0.1214957000662989,
                    -0.2540537100699942,
                    0.17993668400765375,
                    -0.6312120646659325,
                    -0.7254202960738078,
                    -0.676457141299567,
                    -2.022256284331485,
                    -1.4508426216123846,
                    -1.6356878711210108,
                    -1.0091235224690092,
                    -1.7711232953998277,
                    0.8574603693076572,
                    -0.39829163764689735,
                    0.609205060758799,
                    -0.05590884053802225,
                    0.06043283952773378,
                    -0.19377122079196413,
                    -0.479872181330693,
                    -0.28233834717014616,
                    0.17972101736479015,
                    -0.2884792822224667,
                    -0.43956363711636337,
                    -0.2871071094453161,
                    0.8833067728500836,
                    0.2940027083121479,
                    -0.716891733966166,
                    -0.09297350682378962,
                    0.13737225688516747,
                    -0.14050620237593792,
                    0.4077442087868942,
                    -0.014250118456690025,
                    -0.7451176114588932,
                    -0.7687854288751182,
                    -1.3063182634411614,
                    -0.5940433073589046,
                    0.0957411300586535,
                    0.17160205702135045,
                    1.2264330130703198,
                    -0.3223306740134707,
                    0.25313036754898266,
                    -1.5558993536342223,
                    0.0738916125501047,
                    -0.22531396132484097,
                    -0.09148250297464548,
                    0.7294374253848767,
                    -0.3864722403242932,
                    1.3301209047591962,
                    0.830331765241241,
                    0.9381641555877676,
                    1.0076471510249991,
                    -0.6604476510229182,
                    -0.3858756192356215,
                    -0.6516293326859891,
                    0.10735596091564618,
                    0.23876429460607296,
                    1.2778600054774583,
                    -0.1456448431377932,
                    0.7343484147745647,
                    0.4645169236865999,
                    1.2195195961558494,
                    -0.4108312052619188,
                    1.282805472192648,
                    1.2485694662236984,
                    0.4392277984975096,
                    1.0646244492253907,
                    1.74913283039184,
                    1.4834811642191255,
                    1.7498553015396483,
                    0.5882503017327864,
                    0.47219873554749237,
                    0.8868386736347997,
                    0.21414512149121967,
                    1.3593963948549599,
                    1.9453825058124266,
                    0.21571259169650714,
                    0.8176867238670075,
                    -0.13515406776208494,
                    0.07504435750871258,
                    -0.6681766084606177,
                    0.6855208261658925,
                    -0.4212674062238627,
                    -0.0479935906109615,
                    1.5822874118732415,
                    0.5292180401325306,
                    1.3178286296166508,
                    0.18463182817770482,
                    0.7268816151326549,
                    0.45386187990061083,
                    1.459810527719962,
                    1.533243278272304,
                    1.8590473741668059,
                    2.555481822699992,
                    2.389513814770298,
                    2.2167328338549637,
                    2.018910815286717,
                    1.4900216833822257,
                    1.8813836521091045,
                    0.8183826083467546,
                    1.4707037117570376,
                    -0.9221503059381149,
                    0.8996745227751103,
                    1.5266305438397796,
                    1.3181421116469336,
                    0.19930982328144,
                    1.321690226542437,
                    0.4812206155928784,
                    0.39563256264941127,
                    -0.3421316803077295,
                    0.9647624487503816,
                    -0.6088294039941415,
                    1.2422153838733365,
                    1.7125329693858344,
                    0.07506392148673595,
                    0.8725760179193731,
                    0.5082633671549952,
                    0.10083798375077528,
                    0.7523759034741974,
                    1.2101905055679258,
                    1.4796130312665938,
                    0.3706449902349721,
                    1.738774853242857,
                    1.3407246538711786,
                    0.7613010551918399,
                    1.3145325685936382,
                    1.519797802507712,
                    1.9948540149858571,
                    0.09605190332589665,
                    0.22069832051668756,
                    -0.11222366367486115,
                    0.45748949716720855,
                    -0.316734691773257,
                    0.34766885750255766,
                    1.1115752417484814,
                    -0.868015622117227,
                    0.11949016980166785,
                    0.6621517942367182,
                    -0.047090676370350616,
                    0.9652867572726775,
                    0.23887181855034273,
                    1.0074852007717134,
                    0.3879545276809528,
                    -0.2449039492287003,
                    1.2388613985382666,
                    0.43106759238256775,
                    -0.8793056097491979,
                    -0.19051083216674966,
                    -0.40484785736733075,
                    -0.49062934755087695,
                    -0.15307582606289266,
                    -1.286753091978952,
                    -1.696076054322501,
                    -0.11740868723107874,
                    0.7643361102715617,
                    0.028857988982190233,
                    -0.05070414779849049,
                    -0.7811920541414403,
                    1.2238996338191444,
                    0.4551587530633742,
                    -0.7386592133541673,
                    -0.837344540564842,
                    0.624156173646634,
                    -0.6139793521208881,
                    -0.951200878906012,
                    -0.4999900166913597,
                    0.604120589135234,
                    0.9197620706864575,
                    -0.240161383101944,
                    0.42155048025340586,
                    0.6008192166983596,
                    -0.5744373207789393,
                    -1.4386487223284883,
                    -1.1131749213212074,
                    -0.7228956746850017,
                    -0.804260356576622,
                    -2.592815589344696,
                    -2.365672549247477,
                    -2.070095738203861,
                    -1.543517921970782,
                    -1.9805447671475709,
                    -0.9906725954497462,
                    -0.821943050156136,
                    -1.1445695984188853,
                    -1.2297684533432591,
                    -1.7568609674340814,
                    -0.027271606704695747,
                    -0.22553461626674864,
                    0.17767643204785988,
                    0.047736378496267724,
                    -0.2911824726235202,
                    0.00525721592978455,
                    0.7099290608648688,
                    0.7965595524179465,
                    0.14249248767980266,
                    0.9735088987528394,
                    -0.6166253928815235,
                    -0.6116824359403363,
                    -1.1597721717337215,
                    -0.2847659400973406,
                    -0.4161212601589943,
                    -1.2614562311856496,
                    -1.7475949135771216,
                    -1.411762649241929,
                    -2.158795662241127,
                    -2.269750170810986,
                    -1.5094198630654498,
                    -0.7168116890287185,
                    -1.2464490095332064,
                    -1.2225820776673981,
                    -0.5638905100430185,
                    -1.1195830887066873,
                    -1.401480784687285,
                    0.22846310007404694,
                    -0.9132987775564961,
                    -0.7168884747842553,
                    0.7750512568351501,
                    0.8400158108777124,
                    -0.34520666150645263,
                    0.6081980114614765,
                    0.8105981993478617,
                    0.9370345717855102,
                    -0.9874598350872059,
                    -0.33081779034174913,
                    -0.6396232667474785,
                    -0.7955573480518694,
                    -0.02460033874793505,
                    0.6621244967016349,
                    -1.0895302420572874,
                    -0.7701712398885792,
                    -1.4141657947626816,
                    -1.195258856109833,
                    0.2218648028050489,
                    -0.10337627625824554,
                    -0.3659889399877179,
                    -0.5630010173581463,
                    -1.1596852239940407,
                    -0.1884331895791798,
                    -0.7544601693699402,
                    -0.6197311697130099,
                    -1.053436674699652,
                    -0.495012427836599,
                    -0.9579125808093437,
                    -0.7235056730332116,
                    -0.7619048577739087,
                    -0.8989215929217178,
                    -0.5460135039433781,
                    -0.918806569575638,
                    0.643907856927947,
                    -0.004107585597740382,
                    0.09016294258913304,
                    0.45801947769878637,
                    -0.24188126979860758,
                    -0.4616248271373951,
                    0.019503066638529385,
                    -0.8842218524353664,
                    -0.9733133654323924,
                    -0.8480820357369446,
                    -0.4586517868691795,
                    -1.1206822538948913,
                    -0.1950067700191682,
                    -1.1934871632166075,
                    -0.7237763019870714,
                    -0.9765690594912425,
                    -0.8975382709739637,
                    0.3322036108430064,
                    -0.7177218479051959,
                    -0.1991388716942185,
                    -0.49461289008358317,
                    -0.15274956300716838,
                    -0.668928250668197,
                    -0.737511974339945,
                    -0.108399300254166,
                    0.40286005781396306,
                    0.999566667579795,
                    -0.5227353072846455,
                    0.9733747791268867,
                    0.0964166478584787,
                    0.5196267200483329,
                    -0.7811762723733502,
                    0.7049636519077735,
                    -0.8803934554935626,
                    -0.012520900563872636,
                    0.9031843336724228,
                    0.6722577697639786,
                    -1.0481053970567673,
                    -0.7026846356858029,
                    -0.4039576151668437,
                    0.40949450449744434,
                    -1.0372629520876704,
                    0.2307790066476615,
                    0.4979191808542287,
                    -1.2361929977781267,
                    0.44243212802765575,
                    -0.23025225822341777,
                    0.3810152058847084,
                    -1.1084476758665778,
                    0.15889001533246527,
                    -0.4443057752459469,
                    -0.6270289723516576,
                    0.1278678218669185,
                    0.5692778028357124,
                    0.031899580236583125,
                    -0.37653381853448,
                    -0.17029124691189712,
                    0.3176694520318004,
                    0.4192789070356435,
                    0.017399756813379907,
                    0.2222319117493268,
                    -0.7831838274223979,
                    0.3031773417306985,
                    0.4614198865299403,
                    -0.38726686192160864,
                    -0.07207886098587063,
                    -0.11781274861596912,
                    -0.45030557877866,
                    -0.3114544807464635,
                    0.12077833590525269,
                    0.19666260897382415,
                    -0.9614568991055651,
                    0.8220349469615609,
                    0.8216085834693985,
                    -0.9945883643530768,
                    0.8527608230057571,
                    -0.3774720986376388,
                    0.6646192321276208,
                    -0.8659481456777383,
                    0.1931537086746823,
                    -0.7837312050801839,
                    -0.5047111319071299,
                    -0.1963021100710014,
                    0.3056522411128866,
                    -0.3301566733901895,
                    0.3400041729394525,
                    0.46172696777675215,
                    -0.19979525832075873,
                    0.0955052995554333,
                    -0.4608210479129644,
                    0.881151695718943,
                    -0.43901269420362754,
                    -0.8868370211241148,
                    0.06215470668629452,
                    -0.4923685136965796,
                    0.509617074626952,
                    -0.07361768200537382,
                    -0.463688156434262,
                    0.8948165732021929,
                    -0.05316333075232489,
                    0.1633603262035466,
                    -0.26281377819437113,
                    -0.46185363311956446,
                    -0.5988387776883537,
                    -0.5010603791276251,
                    0.2879873540076436,
                    -0.1852201767793787,
                    -0.7815558480901009,
                    0.02638237642187935,
                    0.7916502352965127,
                    0.689593671675087,
                    0.2053674068155209,
                    -0.3813283345067813,
                    -0.8418674859408464,
                    0.6844798814127508,
                    -0.5071537180914529,
                    -0.187478667146179,
                    0.4339065474988384,
                    -0.23184329967247574,
                    0.9530334870678612,
                    -0.5017650657687713,
                    -0.2093674185789387,
                    0.28368072781714915,
                    0.011636918754917458,
                    -0.599717327501998,
                    -0.3030305998425571,
                    -0.7860232085517942,
                    -0.7182176149152292,
                    0.28091703564655374,
                    -0.6230754345899686,
                    0.4750156652544564,
                    -0.38457700842010833,
                    -0.92123362702953,
                    -0.9608352210998587,
                    -0.15343886152021424,
                    0.36403052133393055,
                    0.5068656641642759,
                    -0.1986228141574906,
                    0.836690510569517,
                    -0.4088074651261906,
                    -0.9832650757411914,
                    0.6762182924353217
                ],
                0.8056095342275017
            ],
            [
                [
                    0.8416010167108479,
                    0.3067906237239446,
                    -0.6187463443512926,
                    -0.13372153404267517,
                    -0.14392280184208373,
                    0.7340179432227792,
                    -0.29302676098093805,
                    0.5707750460719333,
                    -0.9920570879501955,
                    0.3208108058385262,
                    0.09851947596880674,
                    0.26673089079309387,
                    -0.8009265914386428,
                    -0.9080212288161755,
                    -0.7496299283058946,
                    0.9638008647723227,
                    0.02122714714806096,
                    -0.3321306268136318,
                    -0.018728686733071855,
                    -0.05649293288642769,
                    -0.8658816369249048,
                    -0.7275703534206892,
                    0.09684841262420757,
                    0.26517801635156024,
                    0.49580121042212544,
                    0.68081971169798,
                    -0.735932868977607,
                    -0.7173106063746215,
                    0.18726005413221758,
                    0.7680890807515484,
                    0.7971464896644282,
                    0.05251614867252896,
                    -0.3944653990188966,
                    -0.2833843907698786,
                    0.3684987911722063,
                    -0.6270141810917401,
                    0.8784473552611978,
                    0.5975273324797246,
                    -0.6858785940329604,
                    1.1229554075881893,
                    0.8750373688752557,
                    0.27011334871059023,
                    0.44035740890836184,
                    0.17750633295112564,
                    0.6469113820382751,
                    -0.5011484184815019,
                    0.3479452809018737,
                    -0.21968310593259482,
                    0.5325275529309275,
                    0.8736194500085602,
                    -0.5115375038661532,
                    0.5215462629067872,
                    0.054938783181968986,
                    -0.12476488006255493,
                    0.06452870792008292,
                    -0.8656011954827822,
                    0.26911208179522417,
                    0.3661939852754958,
                    0.6828319527581291,
                    0.09319239521321718,
                    0.3186991778780435,
                    -0.40284057219728736,
                    0.015476932967640687,
                    -0.6389316208664011,
                    1.164626062555129,
                    -0.09113390627611416,
                    0.7715324470314139,
                    2.2386400233988883,
                    0.9067913848199984,
                    -0.4697769703595086,
                    -0.08626411863094599,
                    0.005419783663582403,
                    -0.1724191570172819,
                    -0.997689616767618,
                    -0.24033795184371398,
                    0.15867352344568966,
                    1.1460327105965524,
                    -0.8650022868192724,
                    0.10535861031623624,
                    -0.8110431361869752,
                    0.8507458428073568,
                    0.9274085628868114,
                    0.8524526638802488,
                    0.5013850944331038,
                    -0.44878333419987615,
                    -0.6810708069600164,
                    0.15872121193373614,
                    0.5894191279690083,
                    -0.008841308105608979,
                    -0.21733788483388916,
                    -0.19090853914685268,
                    1.3370040195693538,
                    0.6338692312361591,
